<?xml version="1.0" encoding="UTF-8" standalone="yes"?>
<!--
  ~ Copyright 2011 JBoss Inc
  ~
  ~ Licensed under the Apache License, Version 2.0 (the "License");
  ~ you may not use this file except in compliance with the License.
  ~ You may obtain a copy of the License at
  ~
  ~       http://www.apache.org/licenses/LICENSE-2.0
  ~
  ~ Unless required by applicable law or agreed to in writing, software
  ~ distributed under the License is distributed on an "AS IS" BASIS,
  ~ WITHOUT WARRANTIES OR CONDITIONS OF ANY KIND, either express or implied.
  ~ See the License for the specific language governing permissions and
  ~ limitations under the License.
  -->

<PMML version="4.0" xsi:schemaLocation="http://www.dmg.org/PMML-4_0 http://www.dmg.org/v4-0/pmml-4-0.xsd" xmlns="http://www.dmg.org/PMML-4_0" xmlns:xsi="http://www.w3.org/2001/XMLSchema-instance">
    <Header copyright="JBoss" />
    <DataDictionary numberOfFields="4">
        <DataField dataType="double" name="Feat1" optype="continuous">
            <Interval closure="closedOpen" leftMargin="0"/>
        </DataField>
        <DataField dataType="integer" name="Feat2" optype="continuous">
            <Value property="missing" value="0"/>
            <Value property="invalid" value="-1"/>
            <Value property="valid" value="4"/>
            <Value property="valid" value="5"/>
            <Value property="valid" value="6"/>
        </DataField>
        <DataField dataType="string" name="TargetVal1" optype="categorical">
            <Value property="valid" value="ClassA"/>
            <Value property="valid" value="ClassB"/>
            <Value property="valid" value="ClassC"/>
        </DataField>
        <DataField dataType="double" name="TargetVal2" optype="continuous"/>
    </DataDictionary>
    <NeuralNetwork activationFunction="logistic" algorithmName="Neural Net" functionName="classification" modelName="Test_MLP">
        <MiningSchema>
            <MiningField name="Feat1" usageType="active"
                         lowValue="1.0" highValue="6.9"
                         invalidValueTreatment="asMissing"
                         missingValueReplacement="3.95"
                         missingValueTreatment="asMedian"
                         outliers="asExtremeValues" />

            <MiningField name="Feat2"  usageType="active"
                         lowValue="4" highValue="6"
                         invalidValueTreatment="asMissing"
                         missingValueReplacement="5"
                         outliers="asExtremeValues"
                         missingValueTreatment="asValue" />

            <MiningField name="TargetVal1" usageType="predicted"/>
            <MiningField name="TargetVal2" usageType="supplementary"/>
        </MiningSchema>
        <Output>
            <OutputField name="out1" targetField="MockOutput1" />
            <OutputField name="out2" targetField="MockOutput2" />
        </Output>
        <NeuralInputs>
            <NeuralInput id="0">
                <DerivedField dataType="double" optype="continuous">
                    <FieldRef field="Feat2"/>
                </DerivedField>
            </NeuralInput>
        </NeuralInputs>
        <NeuralLayer>
            <Neuron id="1">
                <Con from="0" weight="0.125"/>
            </Neuron>
        </NeuralLayer>
        <NeuralLayer activationFunction="threshold" threshold="0.5">
            <Neuron id="2" bias="1.0">
                <Con from="1" weight="-1.0"/>
            </Neuron>
            <Neuron id="3" bias="0.0">
                <Con from="1" weight="1.0"/>
            </Neuron>
        </NeuralLayer>
        <NeuralOutputs>
            <NeuralOutput outputNeuron="2">
                <DerivedField dataType="double" optype="continuous">
                    <FieldRef field="MockOutput1"/>
                </DerivedField>
            </NeuralOutput>
            <NeuralOutput outputNeuron="3">
                <DerivedField dataType="double" optype="continuous">
                    <FieldRef field="MockOutput2"/>
                </DerivedField>
            </NeuralOutput>
        </NeuralOutputs>
    </NeuralNetwork>
    <Extension>
        <Surveyable/>
    </Extension>
</PMML>